34 128
1 0.05572222 -0.053569704 0.11883489 0.047390167 -0.005015396 -0.2181252 -0.025680678 0.27832428 -0.035421867 0.0023017738 0.12244513 -0.05604244 -0.08508069 -0.012815803 0.014473119 -0.10750731 0.15761882 0.089115985 -0.20182733 -0.110034965 0.13178705 0.11313973 0.16611171 -0.0115685435 -0.012690051 0.04346582 0.0072083585 0.10727631 0.042822976 -0.1422713 -0.34519544 0.059112776 0.07343412 -0.008411166 -0.08855084 0.062314782 0.17724927 -0.10253424 0.04890458 -0.05101668 -0.09763156 0.04611055 -0.118490286 -0.063724294 -0.02389097 -0.07123469 -0.06797404 -0.035904534 0.022192497 0.117584325 -0.036004085 0.07573301 0.14774455 0.18815081 0.18126906 -0.080998056 0.12520804 -0.05532335 -0.09575884 0.0962833 0.07930565 -0.03535063 0.09531051 -0.036253795 0.05869815 0.012027197 0.05824888 0.20932497 -0.119917095 -0.063707516 0.21343389 0.105804525 -0.11819908 -0.13547744 0.09035371 -0.12730251 -0.070585035 -0.17255102 -0.059359204 0.01651361 -0.009429332 -0.1564351 0.12279291 0.17463093 -0.0042971675 0.03227339 0.19204082 -0.05372338 0.017644573 0.13462107 0.020260768 -0.009223718 0.1122494 0.059519242 0.1294111 0.16962862 -0.20377009 -0.34021866 0.09736991 -0.063165426 -0.13629586 0.07133411 0.053536445 0.082798116 0.15206884 -0.18477213 -0.002981589 -0.029276697 -0.0101623405 -0.033208743 -0.03935633 -0.021952698 0.0066961045 0.22922014 -0.008823328 0.06816848 0.11324876 0.18148094 0.14501305 0.07817969 -0.044543367 -0.16700548 0.15757976 -0.07174908 0.1658708 -0.13376181 0.03377158 0.15470222
33 0.050022244 -0.070850074 0.13458183 -0.0029138569 0.008060547 -0.07621498 0.10293404 -0.046125744 0.054718003 -0.0043700296 0.18778615 0.05613071 0.005082502 -0.1324318 -0.05440483 -0.07764197 -0.09572231 0.08426157 -0.1061837 -0.012267619 0.11728043 0.06705927 0.16066085 -0.060436342 -0.07473915 0.107486755 -0.08360982 0.1147528 0.1840618 -0.038226396 -0.17219748 0.07668125 -0.098450765 -0.011583705 -0.111496486 -0.014383825 0.24220169 0.13147034 0.34611067 0.02702503 0.1727618 0.14877851 0.020293398 -0.19838884 0.065692775 0.1606556 0.007392757 -0.23238717 0.019508349 -0.02446197 0.12248417 -0.050912187 0.045033697 0.12731607 0.03793473 0.04861154 0.05241479 -0.19377975 -0.050510418 -0.09315481 0.2620898 -0.1867724 0.0080527635 0.22523189 -0.017046712 -0.17402682 0.114803 0.15135477 -0.021382311 -0.060569417 0.02900666 0.00903593 -0.08865991 0.01404529 -0.026848426 -0.03988415 -0.0013324516 0.08812734 0.029637897 0.26614088 0.026536023 -0.040512767 0.039324142 0.086823925 0.123707324 0.10156224 0.18224669 -0.05789546 0.2339794 0.19944637 -0.13187493 -0.07472118 -0.14306691 -0.03741354 0.07560072 -0.11755564 -0.0984335 -0.246205 0.00806032 -0.0020229688 -0.10891837 0.11779138 0.15453938 -0.01997299 -0.010563525 -0.0315896 0.07261516 -0.1611931 0.13035408 -0.045510698 0.060872372 0.10417243 0.036117423 0.010635542 0.100353666 -0.0029531629 -0.021176497 0.17338672 0.13556668 0.0038621689 -0.040232696 0.06875144 -0.0134764 0.13568632 -0.07733517 -0.17129928 -0.08447826 -0.13867277
34 0.047466323 -0.13466932 0.06792431 -0.026588067 0.038553778 -0.07224082 0.11703543 -0.02131605 0.0077339266 -0.02086741 0.1738648 0.11956001 -0.04461155 -0.09514436 0.015280246 -0.04332637 -0.01339554 0.06364331 -0.11367335 -0.033527907 0.14429726 0.05837997 0.15511851 -0.058455907 -0.046453666 0.05397134 -0.051188424 0.08579408 0.17638402 -0.12313876 -0.19865385 -0.012068553 -0.018433144 0.01310817 -0.123831905 0.078017086 0.22014128 0.0785961 0.3391057 0.021784693 0.15689602 0.10435186 0.011575625 -0.20367424 0.0659095 0.16099258 0.035170157 -0.21953084 0.044699647 -0.04135603 0.061996832 -0.05449052 0.106096484 0.1462513 0.12274897 0.041244347 0.025291441 -0.18938342 -0.029825505 -0.09080278 0.27406907 -0.1315556 -0.013107296 0.26547763 -0.015297901 -0.100672424 0.14436375 0.23468553 -0.104238585 -0.07966681 0.12058654 0.01631414 -0.033892646 -0.030980852 0.010490056 0.016983448 -0.06685427 0.010542859 0.058474317 0.21089078 0.08945123 -0.08364481 0.021479195 0.16770808 0.10339948 0.07833212 0.14860675 -0.112163566 0.21381466 0.1022903 -0.06746178 -0.06034295 -0.037055247 -0.03033939 0.10777597 -0.01590861 -0.11364344 -0.24138704 0.046929225 -0.05205435 -0.0626519 0.13824128 0.15399209 -0.03379816 0.0049833204 -0.028718513 0.078349695 -0.09785836 0.16326688 -0.06391697 -0.011275093 0.14264686 0.02174576 0.018049652 0.101695485 -0.026020397 0.0071384064 0.19617595 0.15223348 0.0075145885 -0.043940593 0.10917823 -0.018356074 0.1256445 -0.08874977 -0.13025454 0.003496497 -0.11743401
3 0.040420774 -0.030908208 -0.0030610831 0.12467899 -0.010421955 -0.16706623 -0.05910833 0.17495309 0.0027028166 0.0067411656 0.13814072 -0.07068352 -0.0424505 -0.07657269 -0.014045099 -0.06872426 -0.01590517 0.07409409 -0.16496548 0.010060668 0.105090395 0.109815985 0.12097609 0.015074041 -0.04064178 0.10385327 -0.051176645 0.043364637 0.050482366 -0.037346087 -0.22586039 0.025197389 -0.010736204 0.02353085 -0.10962496 0.0380149 0.26048306 -0.015715638 0.21753056 0.03822216 -0.07818498 0.073689 0.05679421 -0.12852868 -0.09017481 -0.00010844298 -0.08707552 -0.08795532 0.011008877 -0.038496107 0.08043055 -0.088463336 0.10502054 0.20530933 0.061352585 -0.009333832 0.10501902 -0.19861229 -0.12486663 -0.012057019 0.09764374 -0.11108151 0.026183343 -0.051204845 0.04109325 -0.010695072 0.10087662 0.1653089 -0.07925171 -0.066234306 0.091050684 0.024095222 -0.15414444 -0.03460312 0.017777609 -0.08735271 -0.078068875 -0.04701861 -0.03321633 0.115315996 -0.07332044 -0.14295295 0.118189916 0.09670707 0.0028837146 0.06624703 0.1958245 0.040569983 0.12915558 0.22933711 0.01910701 -0.030903978 -0.021410707 0.05251175 0.20836678 0.022125453 -0.21039782 -0.28738606 0.091093905 -0.048088554 -0.1345404 0.02835927 0.089660555 0.0043387585 0.064853616 -0.13437556 0.08994525 -0.08475289 -0.017240705 -0.08366028 0.061643526 0.010474063 0.09714971 0.16943295 0.19084416 0.026015354 -0.007979629 0.17295147 0.15846564 -0.019332394 -0.043096106 -0.09804369 0.073730014 0.028333036 0.093908794 -0.24021423 -0.0009375627 0.039111648
32 0.049091533 -0.0547604 0.07611487 -0.10592856 -0.009684793 -0.07374306 0.037981465 -0.084683724 -0.04736314 -0.020786673 0.16431065 -0.02196947 -0.04680511 -0.09291835 0.02058689 -0.06767966 -0.0018930308 0.02967564 -0.1151775 -0.116735935 0.07840324 0.113477185 0.22293778 0.08417402 -0.018343035 0.19201264 0.028428072 0.100577 0.21167913 -0.12929869 -0.37193593 0.04519025 -0.08079711 -0.016608559 -0.15689422 0.039461575 0.22287802 0.11543406 0.2116063 -0.07116156 0.09992476 0.01665063 -0.061254445 -0.07011863 0.09760751 0.019870771 -0.013563557 -0.2647807 0.02460623 0.023565764 0.09369806 -0.030629534 0.12731248 0.17635421 0.0706134 0.02280578 0.15578678 -0.20065737 -0.09837062 -0.03547374 0.21255383 -0.08234309 0.113544725 0.16103078 -0.032803345 -0.085360214 0.11957181 0.054643836 -0.029876895 -0.09117672 0.15519452 0.017533846 -0.120447166 -0.001893605 -0.07769952 0.05978051 -0.045559935 0.07127078 0.025255261 0.21773715 -0.002116432 -0.0071461634 0.075129636 0.06703048 0.003912459 0.056587093 0.042472232 -0.089699686 0.11705896 0.07968669 -0.12719087 -0.05654732 -0.0180025 -0.018951042 0.058990993 -0.0042539025 -0.15679343 -0.15256897 0.025542406 -0.023466326 -0.012994801 0.113121845 0.017375309 0.099150635 0.12853865 -0.059855618 0.086149484 -0.18495609 0.030633533 -0.045565866 0.05696656 0.06114376 0.051794715 0.045182217 0.037554175 -0.0008156695 -0.053827442 0.114811555 0.13106981 0.11047568 0.051236555 0.028019361 -0.082408324 0.16057925 -0.00800687 -0.21827862 -0.18594195 -0.035629895
24 0.016731938 -0.08573398 0.17300451 -0.046057653 0.022456644 -0.08634724 0.10480023 -0.11434882 -0.06488132 -0.045710426 0.24956468 -0.04434808 0.011458067 -0.17022942 -0.05159161 -0.19437782 0.0017550233 0.07572589 -0.06246236 -0.044054117 0.08974949 0.06346578 0.22004 -0.013394162 -0.04580848 0.1554911 -0.09090423 0.07323885 0.23402369 -0.15125963 -0.2807059 0.2058039 -0.16981363 -0.0011570182 -0.083549336 -0.027436737 0.30527553 0.2639331 0.27033418 -0.0459769 0.25529122 0.08639618 0.0072095734 -0.113546364 0.15775569 0.13044389 -0.035056666 -0.32777953 0.087425865 0.08512491 0.059909552 -0.011986438 0.06813362 0.17028125 0.009230594 0.028864747 -0.0063416646 -0.1997539 -0.05440849 -0.05590573 0.32861343 -0.16329502 0.12378353 0.2295493 -0.08209058 -0.16433369 0.07654966 0.04131378 0.04221143 -0.089306526 0.044405162 -0.052763637 -0.09216205 -0.021619221 -0.045605894 0.072398335 0.025589406 0.085720256 -0.026993824 0.2994499 -0.011426186 0.07250703 0.07640082 0.05414531 0.09247266 0.097683266 0.07386604 -0.038967554 0.14414257 0.09600603 -0.197452 -0.11037055 -0.17304917 -0.030675882 0.023286128 -0.042062074 -0.097292125 -0.109546185 -0.039060026 0.03315164 -0.05979759 0.10030392 0.12642103 0.07183053 0.117382824 -0.00936354 0.10710995 -0.20504485 0.170626 -0.089167215 0.058614865 0.14589196 0.14643098 -0.09409342 0.044717878 -0.05339082 -0.022610757 0.13647307 0.09446472 0.087564886 0.06606837 0.12750322 -0.0751196 0.13474612 -0.04091481 -0.13721317 -0.14633134 -0.04360929
4 0.059092123 -0.068357825 0.030130126 0.15534906 0.016200505 -0.29819554 -0.14407519 0.36516786 0.005032899 -0.00270673 0.063214555 -0.16510679 -0.10015766 -0.06361745 -0.06534942 -0.12112839 0.091168284 0.12826227 -0.1761399 0.0969135 0.1806901 0.06489793 0.24021721 0.012053498 -0.033147078 0.15188321 -0.016506946 0.05796479 0.11660956 -0.20476834 -0.35073707 0.08780407 -0.02640209 0.07190116 -0.082310624 0.16289723 0.25466022 -0.04589157 0.10884594 0.019474532 -0.17306878 0.12988725 0.0143713355 -0.10030661 -0.011009597 -0.041192397 -0.08936383 -0.038142953 -0.021966007 0.024206404 -0.034500923 0.018854443 0.16587733 0.25343454 0.11541845 -0.035168584 0.094188526 -0.10277152 -0.0739744 -0.047849365 0.042529475 -0.0604456 0.15744194 -0.08823654 0.06158441 0.14886297 0.09193833 0.12671812 -0.048821535 -0.013729161 0.1000567 -0.019753741 -0.12250143 -0.06046599 0.06433929 -0.06758391 -0.101792425 -0.092202544 -0.06917728 0.03821406 -0.12857491 -0.13538553 0.14094186 0.004062058 0.0029319716 -0.04832446 0.19758701 0.055499867 0.043464288 0.14937991 0.13777255 -0.08255291 0.05720321 0.043755665 0.1762897 0.13363978 -0.24506098 -0.3003217 0.16616471 -0.01954646 -0.1747567 0.07442731 -0.020744694 0.016367182 0.1959063 -0.083994344 -0.03668995 -0.06683023 -0.111212514 -0.07227429 -0.04150014 -0.033797387 0.044461038 0.10115777 0.16619664 0.0016756788 0.1692758 0.09905685 0.18165085 0.00845199 -0.040464245 -0.1377895 0.05251271 -0.086687654 0.19239728 -0.20060538 0.094701074 0.13994008
2 0.061915897 -0.058950797 0.024226708 0.12455308 -0.00059443037 -0.25180745 -0.09187219 0.31862885 -0.0097387945 -0.02503914 0.062048007 -0.09590634 -0.099879295 -0.040502768 -0.01802007 -0.0914115 0.116769284 0.099736735 -0.18569009 0.010324259 0.16978027 0.06963075 0.23648071 0.019219102 -0.016930722 0.11248798 0.0059608407 0.07286529 0.11717829 -0.19810736 -0.36039045 0.07515331 0.02918909 0.036766518 -0.09784167 0.14383063 0.19705735 -0.06637647 0.08577575 0.0036088976 -0.16796781 0.08519967 -0.024891837 -0.09272711 -0.023861997 -0.049102455 -0.09286658 -0.0052269865 0.003625933 0.063899204 -0.060580026 -0.008115941 0.17347893 0.25045344 0.123056285 -0.047571514 0.062691696 -0.0981721 -0.096086726 -0.009987666 0.06926628 -0.021001218 0.104398616 -0.054874174 0.049801186 0.09205962 0.069286846 0.17396437 -0.09587657 -0.06167965 0.1574879 0.018796979 -0.10844013 -0.11519858 0.074170284 -0.06180199 -0.123278394 -0.12276241 -0.06986548 0.039881617 -0.07487818 -0.16409807 0.14779164 0.07784334 0.008891262 -0.031069148 0.16824478 -0.001951078 0.035525437 0.120497994 0.10432048 -0.050743815 0.11996669 0.0657363 0.15914625 0.16359487 -0.20605072 -0.2999489 0.18389621 -0.06710034 -0.16131978 0.06490199 0.007420392 0.026801866 0.16483656 -0.14330615 -0.0054346244 -0.016388139 -0.053243034 -0.07567425 -0.05507165 -0.022766419 0.05130294 0.1632924 0.13161628 -0.0062261075 0.1590415 0.15796842 0.20000538 0.03159232 -0.031616993 -0.1477471 0.08540272 -0.072013445 0.16544296 -0.19227552 0.09618863 0.107208334
9 0.047456745 -0.05520287 0.09041115 0.04140012 0.025930203 -0.12527701 0.00036477105 0.12193047 0.021645242 0.024207145 0.141121 -0.02840315 -0.030847533 -0.0819699 -0.02648218 -0.101203285 -0.005378375 0.093746506 -0.13556443 0.019862263 0.112059526 0.06183081 0.12875639 -0.03524765 -0.08506728 0.08539062 -0.07962049 0.075943716 0.113652475 -0.070361 -0.2011171 0.081029765 -0.044759303 0.004264885 -0.10305858 0.025030809 0.21920861 0.02494255 0.21001506 0.030950813 0.012196995 0.12250288 -0.015305815 -0.16015391 -0.0026281443 0.042178325 -0.022982743 -0.14926206 0.0036477942 0.027347038 0.07673204 0.0042047002 0.121148214 0.15365289 0.06202132 0.018789498 0.079020314 -0.1020589 -0.062224206 -0.011668769 0.14888151 -0.1272066 0.046504177 0.07587298 0.03944896 -0.06259634 0.09366317 0.15915775 -0.06620058 -0.066608496 0.065099806 0.014760602 -0.09207216 -0.022043834 0.044992547 -0.10327253 -0.04459598 -0.032232575 -0.0108923465 0.16571473 0.000810893 -0.12697832 0.061472297 0.09992837 0.06776493 0.07363683 0.20463893 -0.011963431 0.16334759 0.1845688 -0.045083582 -0.050666023 -0.045078874 0.013596245 0.10965153 -0.0013838554 -0.1375955 -0.27560985 0.03199224 -0.049268667 -0.13037752 0.046439666 0.09184466 -0.0043241144 0.03174499 -0.06801871 0.03881473 -0.11036851 0.054991417 -0.040522996 0.035171345 0.050054535 0.06696018 0.09033047 0.086959705 -0.0027138558 0.016195634 0.1352333 0.13020141 0.023195073 -0.04680606 -0.034336675 0.05735998 0.048696015 0.013890303 -0.13630302 0.008486523 -0.02716769
28 0.064522915 -0.010778568 -0.03382743 0.023321066 -0.02889993 -0.17185974 -0.06564387 0.051249005 -0.002493305 0.007526822 0.22632226 -0.04961804 -0.042255 -0.07941703 -0.002587392 0.032481425 -0.05632572 -0.008573672 -0.15965058 0.0025375679 0.07380572 0.16734673 0.20913725 0.1054893 0.02740538 0.22611836 -0.013241506 -0.009093112 0.10659806 -0.03781224 -0.33070508 -0.0434329 -0.044498246 0.03805874 -0.14735912 0.07892617 0.3296692 0.069477566 0.27098763 -0.013525496 -0.05195007 0.008748002 0.11746068 -0.14034303 -0.057173885 0.011491435 -0.11500026 -0.17462043 0.01066423 -0.08309557 0.14487198 -0.11641087 0.11065936 0.18667012 0.056280285 0.027877664 0.24942766 -0.25388765 -0.14047137 -0.10743786 0.063609146 -0.110436216 0.03241966 -0.07265626 0.06237431 -0.013565675 0.24274717 0.11983949 -0.08723574 -0.0837927 0.14486063 0.04280646 -0.1868272 -0.0025373069 -0.10356463 0.012561121 -0.07383875 0.058249343 -0.04513062 0.17107137 -0.081632204 -0.065167435 0.056399785 0.07970214 -0.042073812 0.0643509 0.0937458 0.007130414 0.108520836 0.23010176 -0.038965467 -0.07383163 -0.031036723 -0.02564831 0.20184766 -0.03133783 -0.24934572 -0.17861879 0.1544336 -0.059799448 -0.065030925 0.04436052 0.052906916 0.06214089 0.13245928 -0.14733388 0.15721133 -0.107039645 -0.09032344 -0.13167931 0.10012013 0.03194653 0.059516735 0.07787287 0.23189631 0.02334397 -0.106943555 0.16244572 0.15965578 -0.0050403886 0.016763704 -0.079200916 -0.045757264 0.05637058 0.07314562 -0.2984877 -0.15960889 0.023517856
30 0.018072959 -0.08332753 0.22134638 -0.037598025 0.05505269 -0.10016218 0.15926035 -0.054949205 -0.024312966 -0.018042726 0.2582147 0.034674924 0.044567715 -0.19435918 -0.016219657 -0.19954465 0.011724927 0.12670013 -0.037013125 0.00060809084 0.09096264 0.058074426 0.13467728 -0.10599413 -0.091759704 0.07029768 -0.11007252 0.11020746 0.20566905 -0.09285998 -0.1810253 0.1784559 -0.14926727 0.004508154 -0.07264114 -0.045049977 0.2342858 0.22177792 0.2702975 -0.02445578 0.2656977 0.11748881 0.010009392 -0.12679234 0.15462613 0.18123163 0.01495386 -0.29691705 0.0665875 0.06065898 0.06400928 0.0072917044 0.053932413 0.139237 0.052956205 0.03440265 -0.06389386 -0.13536805 -0.016546708 -0.072902426 0.31610307 -0.1773893 0.07139783 0.26853138 -0.052542105 -0.20554915 0.052499726 0.10282568 0.03023154 -0.07743887 0.011161737 -0.025321478 -0.060979087 -0.00048450733 -0.0014043323 0.025813397 0.04323597 0.049908154 0.0073034605 0.29850262 0.04408925 0.014266548 0.059324007 0.13257799 0.16127382 0.123476 0.17501138 -0.07942738 0.22936678 0.11598184 -0.21896383 -0.124335505 -0.19691561 -0.016430946 0.035792466 -0.026808182 -0.0575091 -0.17446887 -0.040770147 0.0064186105 -0.10252691 0.096693836 0.2077981 0.014740035 0.0045139235 0.01994589 0.09024731 -0.20188761 0.20803602 -0.05205579 0.047785364 0.18383658 0.10100535 -0.042317916 0.0072458303 -0.045985267 0.010478453 0.13383697 0.086267576 0.066796176 -8.212762e-05 0.15428105 -0.007489247 0.12381272 -0.08863515 -0.114218585 -0.064684466 -0.081748135
7 0.12885423 -0.010452609 0.27941635 -0.08871812 0.015531767 -0.23979524 -0.07107786 0.26700553 -0.0051908866 0.111883715 0.13353585 -0.15690395 -0.0124975005 -0.025433952 0.05050229 -0.19122458 0.1067226 0.13702783 -0.1809153 -0.094378926 0.050934028 0.12930058 0.0024385764 -0.011638007 -0.062132116 0.0001797648 -0.012000521 0.13819738 0.0034308755 0.019704463 -0.2506148 0.10506555 0.033521574 -0.036621056 -0.13228802 -0.068664484 0.21815617 -0.08873831 0.004228143 -0.022750841 -0.03999168 0.032033138 -0.18371081 -0.00362912 -0.030108986 -0.117870495 -0.00785589 -0.21315223 -0.031219712 0.1405804 0.06721064 0.24165423 0.10327302 0.074683115 0.108881295 0.003408491 0.2422149 0.06384566 -0.070826896 0.19263296 0.0027976078 -0.055931967 0.16374633 -0.034647238 0.10703719 -0.06773479 0.04214005 0.026847897 -0.05224939 -0.015232526 0.1779814 0.18039276 -0.20453332 -0.011784109 0.11710295 -0.31738165 -0.029276462 -0.16164292 -0.028418126 0.057357352 -0.001203199 -0.20947395 0.16144454 0.16163185 0.009851081 0.16128616 0.28446028 -0.039456394 0.042170506 0.27582267 -0.13926409 0.004651133 0.04431082 0.11118511 0.0663362 0.20787373 -0.22234909 -0.44361252 -0.06212043 -0.04909208 -0.11848454 0.0750347 0.013532004 0.13679767 0.09728003 -0.14934075 -0.041033495 -0.22284032 -0.09711959 0.12261435 0.04004428 -0.02981048 -0.028919954 0.32147697 -0.20269111 0.11913717 0.008991045 0.025417553 0.060392365 0.19249733 -0.065392055 -0.27472502 0.16165242 0.009066253 0.20626791 -0.11734069 -0.12452281 0.24096741
8 0.057614148 -0.07902245 0.0018401352 0.18950553 0.033909127 -0.30273014 -0.11301466 0.36320975 -0.023213362 -0.012069586 0.06432638 -0.16715004 -0.08763241 -0.08657636 -0.05302489 -0.13890076 0.13204382 0.13960171 -0.18860751 0.07545785 0.18392487 0.05845304 0.2523964 0.041139882 -0.0135334255 0.1358571 -0.0030846307 0.06338983 0.14057565 -0.2269305 -0.3676842 0.11252624 -0.012794163 0.07513855 -0.111561485 0.15016861 0.24908513 -0.035604514 0.13399236 0.024951335 -0.15483479 0.1177974 0.011861081 -0.10332011 -0.024324449 -0.030197997 -0.11307596 -0.026404614 -0.0006876852 0.03878843 -0.06329872 -0.031784695 0.1802874 0.274793 0.09114065 -0.053201642 0.034277122 -0.1505584 -0.08986468 -0.03181495 0.09636015 -0.02392732 0.14184657 -0.06327866 0.029880771 0.10151727 0.054932248 0.13576815 -0.031424094 -0.025165755 0.09743983 -0.017875731 -0.10736118 -0.09352179 0.054082364 -0.035696667 -0.11853004 -0.07857091 -0.09219582 0.05230272 -0.1464369 -0.118574195 0.14802225 -0.0072664716 0.014355753 -0.04939551 0.15105088 0.0492007 0.029411227 0.119376585 0.15510157 -0.087202854 0.060908087 0.062278755 0.16090696 0.124293156 -0.20589359 -0.27133682 0.17988269 -0.02292397 -0.1410016 0.04540164 -0.03616966 -0.010853458 0.17875546 -0.09889976 -0.028510353 -0.019117884 -0.05362642 -0.07270179 -0.043448366 -0.032789424 0.096070334 0.10619814 0.16873826 -0.038105946 0.16392718 0.11874547 0.17679483 -0.0026928354 -0.028944785 -0.12683353 0.045837194 -0.07869379 0.17377916 -0.17967327 0.10930381 0.12884913
14 0.045621064 -0.017994605 0.083238475 0.070054784 0.031838715 -0.23608708 -0.039446983 0.25190157 -0.014554193 0.014918033 0.1371733 -0.09647589 -0.03713823 -0.071702205 -0.023105344 -0.116003364 0.10184604 0.0899684 -0.13356547 0.021177739 0.08813501 0.0700577 0.18226932 -0.008362339 -0.015419752 0.10874314 -0.0041076606 0.09142586 0.12040174 -0.118710525 -0.2958782 0.11775055 -0.048398986 0.038073316 -0.109882236 0.07323577 0.21063182 -0.0065511405 0.095893316 -0.0032618835 -0.070507094 0.09332022 -0.011645634 -0.10775738 -0.007287704 -0.019020718 -0.09566631 -0.10356193 0.011775127 0.08288529 0.002052667 0.03766053 0.14713056 0.18345615 0.09483053 -0.059991267 0.090370014 -0.060923353 -0.06340964 -0.01525621 0.0704812 -0.0468425 0.11528496 -0.074949615 0.0713361 0.009775086 0.07123266 0.14220159 -0.067406975 -0.05653497 0.10874781 0.021047097 -0.12518947 -0.09236724 0.0628661 -0.11069635 -0.05982086 -0.103292026 -0.10482927 0.077905774 -0.06779454 -0.13544045 0.09966949 0.07667696 0.06603218 0.020492485 0.21345043 -0.0030506114 0.081093445 0.18817341 0.016713439 -0.094971545 0.045722187 0.05815213 0.11233525 0.12661774 -0.16132414 -0.28691113 0.124352604 -0.054054145 -0.12414217 0.021358687 0.018817237 0.045203768 0.150355 -0.12990156 -0.015521552 -0.066746384 -0.03917019 -0.03531178 0.0013315703 0.0027170063 0.075171806 0.12046386 0.08289282 0.016397782 0.09746127 0.10669737 0.1414958 0.012703692 -0.029585294 -0.101737365 0.076862104 -0.040292297 0.12507749 -0.15520267 0.03524588 0.08702478
29 0.08824018 -0.120365165 0.07451082 -0.078931764 0.014290751 -0.033173777 0.06518549 -0.08540198 0.010571149 -0.04817165 0.10231045 0.055013288 -0.06306912 -0.10184758 0.027391067 -0.02278544 -0.0038423194 0.028315874 -0.15472147 -0.12795076 0.15981248 0.10036704 0.2504814 0.054717474 -0.06350561 0.15923566 0.028995384 0.124443546 0.2292842 -0.17593136 -0.35165024 -0.007067 -0.0056865863 -0.010844188 -0.17037717 0.075661354 0.14865945 0.04687072 0.24700567 -0.042407587 0.07400649 0.019208867 -0.1023779 -0.1074572 0.086385384 0.0481123 0.07745588 -0.19523746 -0.015225822 -0.0082738865 0.061365176 -0.05879387 0.15602446 0.22435571 0.10274563 0.030608507 0.12713727 -0.19676246 -0.12231274 -0.04937461 0.2596262 -0.084497645 0.08892308 0.2816552 -0.034597013 -0.0851139 0.12993665 0.14948356 -0.07268086 -0.09619606 0.18777391 0.044257246 -0.06710407 0.009611621 -0.045036398 0.07543841 -0.0923006 0.042088564 0.08395634 0.2029277 0.06615696 -0.051989097 0.06090525 0.097034514 0.01320615 0.056393668 0.015823964 -0.1394807 0.12787785 0.02049589 -0.06640944 -0.011588547 0.059386205 -0.03299249 0.06678629 -0.025923112 -0.13211623 -0.20201313 0.067909986 -0.06677106 -0.022989692 0.13353157 0.030141426 0.029811356 0.04691144 -0.06997858 0.054697298 -0.09870774 0.10600317 -0.031055614 -0.022128658 0.051467508 0.0016984413 0.08244202 0.045682017 -0.026857637 -0.0019365199 0.16125734 0.16639939 0.093977764 0.01843308 0.026928732 -0.0526441 0.15908182 -0.05165858 -0.18370485 -0.09641093 -0.09540977
25 0.084593005 -0.0125831235 0.06253046 -0.13051467 -0.021770783 -0.15322869 -0.022666035 -0.09728695 -0.01994921 0.0045142625 0.24546903 -0.03195049 -0.012529119 -0.114068225 0.008566579 0.033528432 -0.020419165 -0.036293972 -0.1338762 -0.07333549 0.058672022 0.1883844 0.2642349 0.14003462 0.047534868 0.27150145 0.038792655 0.037391476 0.18939008 -0.08682302 -0.4192099 -0.0312689 -0.08974301 0.0341243 -0.1484469 0.07638973 0.28399503 0.11378268 0.22177248 -0.06676439 0.037411224 -0.07373637 0.037183374 -0.062825836 0.04932782 0.01623656 -0.047801603 -0.2750461 -0.012772616 -0.05127567 0.13223046 -0.04502509 0.101787835 0.15937115 0.0608708 0.0379734 0.29361704 -0.21379471 -0.13070628 -0.109286614 0.097104676 -0.075036086 0.12327715 0.04644366 0.042038016 -0.060253154 0.26045915 0.027750988 -0.039324485 -0.08320927 0.18710321 0.054871522 -0.19219784 0.02039958 -0.14844514 0.06378391 -0.05364682 0.09549075 -0.009490293 0.1974921 -0.045829266 0.012732047 0.059257563 0.08766758 -0.041898623 0.0888392 -0.0181575 -0.070197076 0.06441801 0.14148724 -0.123904765 -0.09389782 0.008043268 -0.03566512 0.10604652 -0.0106804315 -0.22840045 -0.13072905 0.12823297 -0.04891862 0.0069732047 0.09692937 -0.009317685 0.1488159 0.17759292 -0.13227916 0.13150215 -0.18096113 -0.08646123 -0.0838267 0.06452347 0.032906346 0.012494238 0.039461013 0.08914533 0.028460473 -0.11156376 0.101188846 0.123391666 0.07395499 0.06327564 -0.050921053 -0.12223317 0.12458345 0.044803396 -0.28350767 -0.2887642 0.03786324
21 0.06753652 -0.113097444 0.09738516 -0.008354433 0.022590047 0.019290809 0.10084928 -0.062609635 0.048678894 -0.03958238 0.094046846 0.08153376 -0.05184003 -0.10797281 0.0056281984 -0.08596032 -0.07015167 0.07794785 -0.1331163 -0.09251127 0.1735741 0.053252216 0.1897995 -0.044256378 -0.1555298 0.09165701 -0.06332809 0.14750503 0.20548418 -0.10650156 -0.20803662 0.059470873 -0.033420354 -0.02626952 -0.15330672 -0.008193305 0.13867278 0.068206735 0.3138568 0.012838342 0.108100906 0.114781156 -0.084704556 -0.18121748 0.058982935 0.099401385 0.0906013 -0.15670641 -0.0029992375 0.011776819 0.06494528 -0.105952226 0.13138872 0.22072671 0.073878884 0.046987414 -0.001819872 -0.17329857 -0.11367318 -0.014680682 0.3119376 -0.14592226 0.013857575 0.3152593 -0.029577134 -0.15583509 0.04853303 0.20558874 -0.07953048 -0.12933189 0.09797184 0.02262904 -0.035697233 -0.00044742104 0.008561624 -0.0074325684 -0.066440895 0.029833335 0.08276002 0.2675503 0.09337976 -0.09866566 0.037584238 0.10826782 0.075684294 0.071017444 0.13013704 -0.10369639 0.22660005 0.071125224 -0.085826606 -0.008805181 -0.037532415 -0.031031769 0.07470446 -0.0997563 -0.07218174 -0.24867204 -0.0062733996 -0.05328379 -0.10793296 0.09469897 0.14196137 -0.042744517 -0.09215315 -0.04438606 0.057784315 -0.09190523 0.2070902 -0.028354261 -0.013404217 0.07264081 0.056684982 0.09514273 0.056612756 -0.026311666 -0.003414154 0.21322988 0.17506187 0.037804313 -0.04015417 0.06969543 0.015594557 0.17366724 -0.12187062 -0.13660458 0.007455778 -0.1899832
19 0.03441338 -0.035685595 0.14454949 0.0072084214 -0.0006008832 -0.048698425 0.09304177 -0.027918851 0.0015445319 0.0052785836 0.16748238 -0.011169377 0.007721574 -0.099292494 -0.00041643274 -0.15176003 -0.0567942 0.09402463 -0.105672106 -0.06819507 0.06346345 0.089485295 0.08683999 -0.055367906 -0.09327732 0.06401051 -0.079175204 0.119630076 0.12638895 -0.011857165 -0.15595862 0.12952846 -0.09190418 -0.045667354 -0.12934463 -0.08796911 0.2458007 0.13184533 0.27870762 0.0051146476 0.15510324 0.112762004 -0.015407879 -0.14276321 0.048261616 0.096930884 -0.025321292 -0.23356695 0.05510735 0.059720952 0.09788976 -0.009128284 0.060109805 0.13064957 0.0058688796 0.03951128 0.020788986 -0.16273643 -0.06728058 0.029363066 0.2501172 -0.16573316 0.019935492 0.18494615 -0.028024178 -0.18463269 0.023895893 0.09623122 -0.027321383 -0.0779773 0.050672866 0.03493998 -0.1130342 -0.00095733226 0.022515303 -0.085304186 -0.0042278785 0.044774346 0.011551141 0.26840845 0.023830807 -0.06318378 0.07829567 0.101822816 0.07075174 0.11229806 0.19799769 -0.027161613 0.19851328 0.18688817 -0.16729836 -0.04647816 -0.1444916 0.009289275 0.06048977 -0.047727846 -0.09708565 -0.25320423 -0.08256935 0.00042430114 -0.108325705 0.07751036 0.16361743 0.039604947 -0.015784312 -0.04986497 0.104034364 -0.18960565 0.13683826 -0.0058211978 0.09096429 0.10534037 0.0981197 0.088010035 0.02193178 0.008521065 -0.061676666 0.1540641 0.11038697 0.050432943 -0.016815977 0.039577108 0.041744124 0.15167306 -0.027645037 -0.15102074 -0.08467586 -0.0803858
11 0.101433426 -0.04485908 0.21152997 -0.074414834 0.028123891 -0.22139697 -0.044451192 0.218738 -0.023928888 0.07485354 0.18450944 -0.04881592 -0.03168373 -0.05980252 0.07885428 -0.140963 0.14755297 0.104532644 -0.1629279 -0.118507005 0.06149956 0.1479743 0.08253516 -0.008485429 -0.036065266 0.03369595 0.011826114 0.117742784 0.03898152 -0.07094105 -0.29723203 0.059365176 0.07002429 0.0007468733 -0.12785338 0.0102840355 0.18514487 -0.08078935 0.01324711 -0.052136496 -0.06558747 -0.028067084 -0.14759819 -0.027610581 -0.016576035 -0.09854076 0.00247621 -0.14453886 -0.018903412 0.13559003 0.027271058 0.16279075 0.14055355 0.14201066 0.15704082 -0.026081115 0.1889107 0.030437304 -0.09007066 0.13976236 0.02592818 -0.03149867 0.14431956 -0.030303968 0.10702737 -0.02245266 0.08727913 0.12360941 -0.11564137 -0.07916757 0.22615577 0.15592939 -0.13534342 -0.044884007 0.08873019 -0.18774912 -0.06877916 -0.17643018 -0.022363838 0.052432712 0.02141069 -0.18808684 0.08862146 0.20284611 -0.010854435 0.1308231 0.22227864 -0.086801656 0.042969074 0.18159556 -0.10564281 0.0028342493 0.12250322 0.069341846 0.094726406 0.21815461 -0.19399619 -0.36678085 0.04666336 -0.09607582 -0.10950507 0.051828437 0.055111613 0.10734725 0.07152536 -0.17708842 -0.0015886729 -0.10805884 -0.057696473 0.057963233 -0.019013595 0.00086874666 -0.016754061 0.2916737 -0.14102837 0.07405793 0.025068296 0.09799305 0.08793348 0.16060227 -0.054341175 -0.22229841 0.14314587 -0.025560291 0.15714335 -0.1346111 -0.055219106 0.20280422
26 0.06700886 -0.047395118 0.21612032 -0.14669146 0.05816072 -0.23468351 0.09606928 -0.09710936 -0.04564427 -0.022670727 0.33973053 -0.023533428 0.06789325 -0.21790011 -0.013146834 -0.11500363 0.04119149 0.040145747 -0.037612107 0.021465449 0.060541723 0.12253525 0.28513145 0.041535087 0.05049945 0.25207788 0.008645244 0.08774147 0.30028886 -0.1518943 -0.37444705 0.11970413 -0.19474365 0.0680044 -0.124473006 0.038190894 0.2715592 0.2720086 0.21707147 -0.076065876 0.21402614 0.0022228793 0.06961494 -0.057829756 0.19630726 0.14637788 -0.0338255 -0.3601977 0.058100693 0.023609804 0.064229906 0.03496878 0.067334905 0.1438155 0.024914894 0.051480867 0.12131726 -0.17310993 -0.024687184 -0.18705976 0.22489953 -0.09760719 0.17205894 0.17139205 -0.0055414326 -0.14455163 0.20952803 -0.032570094 0.08013974 -0.04238642 0.08311427 -0.026750617 -0.13173112 0.0030577898 -0.12170018 0.13392438 0.027747205 0.14642613 -0.05147612 0.29722926 -0.0469312 0.10440692 0.0614172 0.07208028 0.1042505 0.10325458 0.014091118 -0.11202492 0.11560084 0.10544215 -0.23330665 -0.22108573 -0.13266402 -0.041633826 0.0005403855 0.0078036534 -0.13384502 -0.08651146 0.096407756 0.0040743174 -0.022611553 0.119520426 0.06019621 0.13497056 0.18765934 -0.018164922 0.10163701 -0.26698595 0.03882321 -0.07234318 0.054701872 0.15615684 0.05721037 -0.13271266 0.03723951 -0.0572201 -0.04091515 0.044755895 0.09486793 0.07366669 0.06491753 0.113268375 -0.15781508 0.12982923 -0.033948574 -0.21466765 -0.27160633 -0.008089971
16 0.046358574 -0.105242826 0.14479846 -0.0098817125 0.03796602 -0.005001198 0.121842116 -0.05529004 0.018988488 -0.02123862 0.13033848 0.056383297 -0.017240437 -0.12514582 -0.0077962284 -0.1356606 -0.033775195 0.106378615 -0.11270814 -0.07726977 0.14790718 0.05905793 0.14650099 -0.06886054 -0.13695155 0.06288958 -0.08349261 0.14647555 0.18488431 -0.09623902 -0.18833862 0.11173681 -0.04216815 -0.03058767 -0.11863497 -0.037671156 0.14370698 0.083952196 0.2551433 0.01436066 0.13984603 0.11344079 -0.08982114 -0.15367831 0.07112967 0.10689429 0.06819818 -0.18029098 0.013915316 0.056625366 0.060544003 -0.025406903 0.11291147 0.18270387 0.05604649 0.029359605 -0.012185593 -0.14253026 -0.07749864 0.0007661552 0.31467342 -0.1596625 0.04231952 0.27846295 -0.035817258 -0.17795455 0.03257359 0.18390995 -0.04724251 -0.09946542 0.06418073 0.014057068 -0.036666658 0.0009310831 0.032503933 -0.033173073 -0.035707336 0.011440195 0.05870115 0.24658732 0.082868874 -0.089221425 0.043969024 0.13074662 0.10121681 0.10080299 0.16518159 -0.092246294 0.21697466 0.10110921 -0.11535391 -0.015848927 -0.06656282 -0.0057940218 0.05336211 -0.05819744 -0.063757695 -0.2599574 -0.04400452 -0.04313693 -0.11093372 0.07841999 0.15177529 -0.027767066 -0.06378558 -0.040484883 0.04977448 -0.11895754 0.20224996 -0.012015271 0.0089113265 0.0830424 0.07483249 0.079512395 0.015095798 -0.031306136 0.012628977 0.19050886 0.13077264 0.056882694 -0.03862332 0.07108666 0.039247107 0.14709313 -0.09990264 -0.113667995 -0.010005718 -0.12919237
5 0.1099539 -0.056008898 0.26374105 -0.068395324 0.042883486 -0.20764677 -0.020073736 0.22192682 -0.016687434 0.06261701 0.13258508 -0.075229034 -0.045580927 -0.059216157 0.043899767 -0.17620237 0.16435105 0.123111665 -0.1624283 -0.10639123 0.10555999 0.10876894 0.11274572 -0.035801604 -0.084774986 0.03338744 -0.007200474 0.15820922 0.08442691 -0.10776816 -0.3046277 0.12263859 0.031923186 -0.0053751743 -0.11480258 -0.011860498 0.13505003 -0.09340934 -0.010433336 -0.03947163 -0.04221761 0.019619172 -0.19054371 -0.0295558 0.012333816 -0.09395795 0.029142281 -0.14521532 -0.040770654 0.15657324 0.010446418 0.16850376 0.13901058 0.13939002 0.13238 -0.03688601 0.14025746 0.06329751 -0.07896708 0.14685568 0.063531846 -0.03087033 0.16658083 0.037073825 0.076295994 -0.048584674 0.03529522 0.108270794 -0.07561314 -0.059669252 0.1847791 0.13283125 -0.119208485 -0.051468972 0.11380943 -0.19402938 -0.05564311 -0.18306966 -0.025015835 0.04825929 0.030383153 -0.17411193 0.10689731 0.15816283 0.023826495 0.09512654 0.20259808 -0.083138235 0.04072354 0.1406971 -0.08583105 -0.01488365 0.10654083 0.069495246 0.049931567 0.18881816 -0.14626887 -0.36567643 0.009067755 -0.069695875 -0.10192517 0.06617114 0.024333164 0.0961868 0.080855414 -0.14399591 -0.049133953 -0.11296306 -0.0066970657 0.08117892 -0.04524814 -0.020133615 -0.0063383407 0.25552696 -0.16637678 0.07078003 0.085035674 0.08337567 0.09970572 0.15192686 -0.047606044 -0.18790852 0.13965198 -0.0031997175 0.13762301 -0.087726004 -0.037320375 0.16631152
20 0.07903558 -0.12034304 0.13726273 0.0068559707 0.05147556 -0.12096288 0.06964167 0.15702094 0.012970585 -0.01882989 0.12477421 0.04248377 -0.06370712 -0.07612008 0.02837523 -0.105568595 0.09587577 0.09442335 -0.15660441 -0.08135328 0.16308635 0.053104665 0.1432601 -0.055960663 -0.10237952 0.026619136 -0.023511458 0.1287281 0.13376458 -0.13244887 -0.24433982 0.05084012 0.048231084 0.0013706471 -0.12032508 0.045028314 0.093345866 -0.050691187 0.14551453 -0.016547265 0.0015362946 0.08222506 -0.1216636 -0.12194286 0.021205433 0.0059079514 0.043869026 -0.07309408 -0.0023305095 0.06207281 -0.010639823 -0.006590069 0.15861931 0.1952668 0.15135734 -0.042229395 0.03251718 -0.05706545 -0.08034486 0.026076067 0.19211072 -0.06927772 0.03692323 0.14484492 0.024543291 -0.07672573 0.025881037 0.24621385 -0.121141195 -0.10153959 0.16123502 0.055217534 -0.043048907 -0.074912444 0.079491764 -0.0747432 -0.08143419 -0.121829525 0.0152803045 0.1169811 0.064369775 -0.17257704 0.069577396 0.17702317 0.07510312 0.057070453 0.17549457 -0.117647715 0.14696662 0.09110054 -0.02841398 -0.008146207 0.06528279 0.031818494 0.089544915 0.06896243 -0.094964385 -0.29395565 0.060727194 -0.08857476 -0.10969146 0.06022598 0.0798186 -0.032194853 -0.0068366835 -0.09523577 -0.016513797 -0.016577872 0.12951247 -0.009717032 -0.053765472 0.044174884 0.02593055 0.16533504 0.0030514046 0.0017595486 0.08582617 0.18135625 0.15018135 0.04718453 -0.06031914 -0.044978097 0.10288838 0.035139535 -0.013435566 -0.08836277 0.08852829 -0.021894151
13 0.07030112 -0.04498122 0.07958634 0.11188555 0.042742893 -0.29597062 -0.0830199 0.34182233 -0.023854923 0.028684169 0.09235871 -0.14128633 -0.060101405 -0.06387834 -0.011006915 -0.1383867 0.14464888 0.11208553 -0.15842558 0.055437982 0.12296574 0.07315865 0.20141597 0.010997193 -0.020965898 0.123372726 0.012829591 0.09951864 0.11265985 -0.17877819 -0.3386426 0.10215628 -0.012789761 0.060537565 -0.11214161 0.110927545 0.18653928 -0.065712065 0.044812884 0.0152604375 -0.14236894 0.09784378 -0.035749454 -0.07737323 -0.014812472 -0.04657794 -0.089814 -0.051027343 -0.011497398 0.085243165 -0.030996848 0.070091546 0.18052188 0.20259784 0.08835758 -0.05175388 0.08531151 -0.04160653 -0.05695451 0.008614588 0.03844211 -0.01674243 0.15793543 -0.073785976 0.077625744 0.07053535 0.06629758 0.11891252 -0.057529252 -0.040863067 0.11536008 0.012182104 -0.116384335 -0.094549045 0.09164048 -0.11069825 -0.08889648 -0.1294793 -0.10370606 0.03648136 -0.089722544 -0.15161757 0.11840254 0.054399654 0.030479392 -0.01810043 0.20404905 0.009939304 0.048217207 0.15133843 0.07822563 -0.098192915 0.09619202 0.07503774 0.114337824 0.17253749 -0.19345161 -0.33037737 0.15026538 -0.05481166 -0.13975288 0.026311137 -0.008273293 0.04503771 0.17436051 -0.12252151 -0.044404276 -0.059536256 -0.0633894 -0.011244876 -0.03399196 -0.021056885 0.066822685 0.14142491 0.067515634 0.012622119 0.15040681 0.08070825 0.16473028 0.031954776 -0.045741707 -0.14996943 0.08131511 -0.05486615 0.1705677 -0.1777306 0.057927456 0.13206074
10 0.056506857 -0.14470078 0.11459416 0.03238037 0.0376547 0.016108938 0.11349824 -0.024227077 0.035422854 -0.033451702 0.1259781 0.09031913 -0.046257243 -0.13940093 -0.00559149 -0.12400542 -0.042862393 0.103137635 -0.11844306 -0.046393067 0.19018996 0.029841155 0.15156399 -0.08154254 -0.17514369 0.041504204 -0.13208008 0.11218448 0.18259707 -0.11430071 -0.14530633 0.09735253 -0.015274798 -0.028002767 -0.11115003 -0.020538315 0.1576693 0.06964387 0.31091663 0.028299978 0.13629654 0.1413699 -0.06881225 -0.19884194 0.05095912 0.1146515 0.092988454 -0.12962857 0.0148033835 0.028481597 0.058547135 -0.09991519 0.13616769 0.21712267 0.082381554 0.04966219 -0.056615323 -0.14616354 -0.096459 -0.007478865 0.33194613 -0.18567814 -0.0046896203 0.3123424 -0.025990058 -0.16648412 0.0425927 0.24613419 -0.07754377 -0.13730948 0.06340522 -0.000679618 0.0003056404 0.0023409748 0.035767738 -0.023070091 -0.05140319 -0.015803492 0.09228996 0.27012295 0.10528623 -0.12093652 0.010324808 0.14654388 0.106498115 0.11063422 0.17735402 -0.07728472 0.2603675 0.0880276 -0.08880562 0.002877213 -0.06335802 -0.028042514 0.08736064 -0.09653043 -0.052933406 -0.24462523 -0.023534063 -0.048840273 -0.14694625 0.075476564 0.19286571 -0.090284966 -0.12603584 -0.03055392 0.06350065 -0.05850647 0.24928144 -0.0548007 -0.01639141 0.090615176 0.077171825 0.07968602 0.06257865 -0.055610456 0.03061289 0.24669859 0.15766259 0.035384808 -0.0693571 0.06867021 0.05411314 0.11693886 -0.1428868 -0.09272509 0.07670981 -0.17857529
18 0.095079824 -0.068383455 0.15061647 -0.009839476 0.05723793 -0.23907542 -0.0043438557 0.262827 -0.0054304916 -0.004650818 0.14096098 -0.03221215 -0.07339064 -0.064934045 0.029851956 -0.10123638 0.1749723 0.08542541 -0.13082 -0.051645588 0.11077642 0.059372578 0.2104496 -0.015380277 -0.034385122 0.085589744 0.04470229 0.15191329 0.16490254 -0.16401401 -0.34119496 0.09445306 0.012356151 0.03733489 -0.12914099 0.08985681 0.10356138 -0.06731139 0.038641892 -0.035394527 -0.08171412 0.04609405 -0.10353865 -0.09044539 0.035320923 -0.06452627 -0.015492503 -0.085103914 -0.014181128 0.122789666 -0.045330737 0.038086586 0.17954043 0.20408937 0.16009024 -0.09237526 0.07657449 0.017053192 -0.076660305 0.017088853 0.07572593 0.014762744 0.13339347 -0.006893777 0.07290463 -0.0032174692 0.049036242 0.19659847 -0.12133991 -0.089464724 0.20532022 0.054477047 -0.09209498 -0.12786564 0.090225294 -0.11172817 -0.10177456 -0.17174953 -0.089841254 0.060502995 0.0002635283 -0.18256344 0.094391815 0.13359176 0.0899342 0.023102552 0.17938249 -0.10664698 0.06769561 0.13201845 -0.010054273 -0.07583777 0.15260404 0.066285454 0.082738325 0.19719705 -0.11712635 -0.31035903 0.1654352 -0.10492697 -0.091516495 0.03366258 -0.021965453 0.038242813 0.11437054 -0.14261861 -0.065965466 -0.009666502 -0.008726646 -0.006180084 -0.071588635 0.00899224 0.028469484 0.17979 -0.0009905921 0.010661676 0.14276597 0.10448102 0.15745112 0.06026361 -0.036610696 -0.119313605 0.08388096 -0.021854881 0.10519966 -0.12451425 0.06652872 0.07921289
22 0.07322252 -0.02062522 0.18270195 0.026537092 0.04539765 -0.30037278 -0.036263272 0.33645982 -0.021215968 0.020140456 0.13923688 -0.1167786 -0.04937635 -0.064224266 -0.010868139 -0.15504175 0.18731102 0.12880018 -0.14026263 -0.0071356255 0.10213049 0.06354022 0.18749876 -0.01600019 -0.030849112 0.07554952 0.024335478 0.14575572 0.12745795 -0.1487671 -0.33456165 0.15247528 -0.030531555 0.03473829 -0.118839845 0.06805328 0.1563913 -0.049197253 0.009548978 -0.031605255 -0.095310256 0.090665385 -0.0823955 -0.0717194 0.010127261 -0.06308619 -0.062101144 -0.09365255 -0.0039814347 0.14109962 -0.04072738 0.0969485 0.16115795 0.17682402 0.13360874 -0.1003993 0.088221096 0.026132202 -0.05700845 0.026242796 0.058443796 0.0035930418 0.14985803 -0.09497964 0.093292005 0.00039525743 0.010619538 0.13707216 -0.064250655 -0.056058962 0.15724005 0.04863125 -0.13138197 -0.12929681 0.10304781 -0.16017312 -0.067299545 -0.1704356 -0.13398816 0.050972912 -0.053138297 -0.17056894 0.13890478 0.09359 0.094446644 0.029736841 0.22583877 -0.06084652 0.03752204 0.18292654 -0.005057262 -0.08998413 0.10345239 0.09606691 0.077463806 0.21356203 -0.1451598 -0.3308772 0.13413589 -0.07164707 -0.13385205 0.022065055 -0.026946537 0.058812626 0.16048314 -0.1412245 -0.0884132 -0.05055692 -0.051484752 0.0007462705 -0.036238436 -0.020018 0.054630946 0.17886038 -0.0026590403 0.017423812 0.1610146 0.08133377 0.13351093 0.052147802 -0.039708577 -0.15521234 0.108633526 -0.07721191 0.16109152 -0.12247643 0.055132065 0.1434477
6 0.12020623 -0.006501198 0.26455244 -0.09242358 0.034356214 -0.24622431 -0.07619884 0.2659583 -0.04077563 0.10828249 0.14883544 -0.14210844 -0.0410432 -0.046701055 0.06990443 -0.18768579 0.169231 0.12373561 -0.16026053 -0.0690869 0.054496422 0.13444531 0.05731189 0.005066968 -0.06320539 0.04302989 -0.008911375 0.1412025 0.042490102 -0.05068604 -0.3086686 0.12892605 0.021292204 -0.005420253 -0.12402801 -0.033925354 0.21753661 -0.08345478 -0.03248087 -0.03286942 -0.07354083 -0.008600064 -0.17612432 0.006709534 -0.0029384657 -0.1324112 -0.0014819178 -0.19581586 -0.05287911 0.16017179 0.0345549 0.22239469 0.14304574 0.12184768 0.14028005 -0.0068571917 0.22011597 0.08154032 -0.0823863 0.1732111 -0.015702331 -0.036798153 0.20947704 -0.040431477 0.11366083 -0.022748392 0.07528057 0.042816855 -0.079975 -0.054059494 0.20154925 0.1624103 -0.182929 -0.02486037 0.112828575 -0.24611428 -0.050133392 -0.19650964 -0.038371768 0.03848653 -0.008165094 -0.19057925 0.12124494 0.15318657 -0.013676654 0.13366885 0.23517576 -0.037606444 0.03129257 0.21469195 -0.121257275 -0.024158906 0.09740351 0.09161836 0.072031364 0.24045332 -0.21531111 -0.38743207 0.0038901195 -0.06402759 -0.11325236 0.06085032 0.012796118 0.14144963 0.11422748 -0.15102802 -0.023039483 -0.19181892 -0.10145085 0.086503826 0.0012106403 -0.025199164 -0.009342348 0.2818657 -0.17702705 0.09369052 0.045309056 0.03667711 0.06797737 0.19133082 -0.034386415 -0.2599165 0.13857193 -0.0073836828 0.19275485 -0.12459886 -0.098195 0.25292182
12 0.09116988 -0.04643793 0.1959106 0.023984898 0.05623817 -0.25856778 -0.026400814 0.34460974 0.0037391882 0.025281666 0.093898386 -0.08598706 -0.058213495 -0.04741008 0.006105251 -0.16176333 0.19988675 0.13573992 -0.16820042 -0.049921192 0.12350379 0.06584006 0.18927965 -0.036797147 -0.06339904 0.056814067 0.029395746 0.17196725 0.13140997 -0.15669864 -0.33303714 0.14757061 0.018088402 0.025389526 -0.12711664 0.057515696 0.0844794 -0.12801118 -0.034464933 -0.016379505 -0.13226178 0.082402945 -0.15280314 -0.07657463 -0.0060638026 -0.09501994 -0.029190715 -0.04905745 -0.024649223 0.156812 -0.056757215 0.11772126 0.18651792 0.19540393 0.1310702 -0.09620673 0.073002085 0.072944276 -0.06825745 0.078130305 0.056812327 0.010676803 0.15016907 -0.04166331 0.09859874 0.001690833 -0.01023079 0.17238252 -0.10121951 -0.07577565 0.17507951 0.06789582 -0.10715122 -0.12646367 0.14779854 -0.1972514 -0.087588556 -0.2156324 -0.10261533 0.019945763 -0.0072216657 -0.21527009 0.12747736 0.12995441 0.08276344 0.025375897 0.23015215 -0.08037379 0.04458033 0.15646099 0.016183855 -0.050308246 0.16420534 0.10151163 0.07156483 0.21900345 -0.12579662 -0.37974337 0.12015781 -0.10096154 -0.13544467 0.015476953 -0.021016983 0.050406355 0.11716365 -0.16010952 -0.1119037 -0.023357082 -0.010783996 0.042090688 -0.06241367 -0.038992517 0.038133554 0.24608323 -0.050084993 0.032831546 0.17929578 0.08808768 0.15168512 0.06528779 -0.05966416 -0.18186943 0.15592012 -0.054922193 0.14185788 -0.10466783 0.07951653 0.11402145
27 0.046100102 -0.1439299 0.15973198 0.019133156 0.05699404 -0.04276522 0.13315643 -0.012715357 0.01876329 -0.031193374 0.19174638 0.06369393 -0.009053118 -0.15603656 -0.0317021 -0.15424651 -0.023124326 0.11670501 -0.09642009 -0.022746952 0.17431605 0.013892147 0.14709078 -0.09237926 -0.15384436 0.04134861 -0.1255276 0.11489513 0.20824723 -0.11574363 -0.17045328 0.14126454 -0.04822715 -0.013237753 -0.09086016 -0.014127253 0.16234379 0.107879505 0.28122404 0.014345167 0.15875761 0.13816048 -0.05523581 -0.1940831 0.06970666 0.13194226 0.062326387 -0.1972495 0.03085851 0.03943044 0.05851304 -0.06418268 0.104450054 0.20566355 0.060946845 0.018685963 -0.073920526 -0.13489637 -0.0800614 -0.034812335 0.33382073 -0.17366253 0.026878014 0.29222777 -0.046803016 -0.16884297 0.031841468 0.23027487 -0.048482705 -0.11712448 0.04210789 -0.020240577 -0.025903733 -0.012858172 0.049421012 -0.016466424 -0.041599978 -0.022129217 0.043992136 0.2624154 0.08297453 -0.090023786 0.053078055 0.13731025 0.15703908 0.112681694 0.16030379 -0.09864237 0.23935905 0.09406408 -0.122783236 -0.034138445 -0.0890184 -0.00012709087 0.07373569 -0.06649017 -0.038037974 -0.22887099 -0.0048968196 -0.052349404 -0.12661555 0.07714328 0.16301492 -0.0851429 -0.08129689 -0.010063517 0.053427313 -0.075749524 0.25346953 -0.06338419 0.00041186842 0.12635116 0.10486241 0.03127957 0.08072552 -0.070212096 0.046410438 0.20199803 0.1311254 0.035538115 -0.024594506 0.10522711 0.035967156 0.120514184 -0.12614015 -0.078087434 0.052464657 -0.15818097
31 0.03330531 -0.071405746 0.07386022 0.03325609 0.0026697412 -0.04169241 0.093016684 -0.060673032 0.04155843 -0.041426893 0.16577013 0.03474158 -0.004803779 -0.13281031 -0.04278052 -0.08423378 -0.09951893 0.08125656 -0.09518082 -0.013587823 0.12167955 0.05291629 0.17363816 -0.04428891 -0.10194174 0.110085644 -0.080382854 0.10536955 0.19134258 -0.054253526 -0.17812477 0.090875894 -0.10806811 -0.004410077 -0.13282156 -0.0029886693 0.24155729 0.15611349 0.35921472 0.025338646 0.13894114 0.13904351 0.042380296 -0.20758088 0.056719784 0.13694222 0.00076076086 -0.22119756 0.038646445 -0.012348503 0.09770084 -0.13224608 0.0696221 0.19548684 0.016080998 0.03781919 -0.008017024 -0.23413292 -0.094381265 -0.08161709 0.28898874 -0.16691262 -0.0021689462 0.20399986 -0.045351252 -0.15225394 0.061194006 0.15192077 -0.038554206 -0.09367273 0.039300922 -0.03297059 -0.089115255 -0.00036468857 -0.017212229 -0.0051579145 -0.023334973 0.07208501 0.02134295 0.29176876 0.020215176 -0.045789868 0.0712823 0.072303675 0.10651987 0.08120119 0.153153 -0.052366856 0.2393145 0.1563711 -0.110808834 -0.07011893 -0.12964442 -0.013595907 0.10824812 -0.10038994 -0.09407059 -0.21201403 0.010273893 -0.019507978 -0.117769614 0.08320565 0.15144964 -0.031326886 -0.02390626 -0.030180436 0.10032237 -0.1354375 0.15415925 -0.07892561 0.054957867 0.115830146 0.11148759 0.02210271 0.1633499 -0.04430863 -0.024886051 0.1799106 0.14887011 -0.015575772 -0.008323677 0.10275238 -0.02829053 0.1597737 -0.08384381 -0.17851275 -0.037136145 -0.16932213
17 0.10533176 0.035350848 0.31615368 -0.08539951 0.04432392 -0.2227555 -0.06398087 0.29169688 -0.03722861 0.16565478 0.08441492 -0.21617545 -0.013188274 -0.029171696 0.05219405 -0.25620598 0.12916327 0.18247154 -0.19851747 -0.09157186 0.020919401 0.14716142 -0.043531567 -0.030967979 -0.09078334 -0.032653503 -0.014388893 0.18191522 -0.05746443 0.05070787 -0.24204114 0.13252334 0.0034469499 -0.06951598 -0.16014546 -0.15106167 0.23189387 -0.123759426 -0.012616814 -0.020204678 0.0016864559 0.051406484 -0.25793028 0.023115084 -0.052595645 -0.111193955 -0.0057076295 -0.26542288 -0.066797204 0.16447237 0.0883717 0.3568212 0.11570374 0.046878338 0.08516525 0.00046682224 0.26661915 0.10318501 -0.033523068 0.2921911 -0.021160567 -0.053721108 0.22227867 -0.011863159 0.07162698 -0.10589822 0.0029177584 -0.016122837 -0.029993372 0.036942393 0.14341299 0.213471 -0.2217114 0.02146248 0.13322191 -0.38814634 -0.024357298 -0.17255351 -0.046989877 0.050862085 0.004034219 -0.20871054 0.20358124 0.15810816 0.0070412573 0.16801411 0.35751498 0.008681338 0.040489763 0.30195192 -0.1661946 -0.017978597 -0.0038937698 0.13225256 0.029184936 0.20715031 -0.22216092 -0.49188557 -0.1592753 -0.02967636 -0.109500624 0.0850229 0.025835574 0.2016518 0.1309244 -0.14585997 -0.035867434 -0.32052606 -0.08362012 0.17342259 0.07830921 -0.031670593 -0.037576314 0.35252804 -0.29063466 0.15889783 0.01055774 -0.033982027 0.034854703 0.22990528 -0.08215629 -0.2784548 0.21573031 0.047546525 0.24110542 -0.121211 -0.15247169 0.27086568
15 0.010483525 -0.07413549 0.11051245 0.035955414 0.02023248 -0.026005862 0.10116138 -0.03570942 0.016896488 -0.017215408 0.15061483 0.007967173 0.012577207 -0.13408278 -0.04043231 -0.15975317 -0.050287783 0.12613438 -0.083716705 -0.008870608 0.115360275 0.037111457 0.10328897 -0.08786389 -0.12080196 0.05742708 -0.12451624 0.09642719 0.16512607 -0.059413567 -0.124069825 0.14896756 -0.10954735 -0.022092838 -0.09573535 -0.04014779 0.22763856 0.1428828 0.2981635 0.03515566 0.17067596 0.16336258 -0.0010889587 -0.18223171 0.060582593 0.14202732 0.0049481 -0.22757359 0.044254165 0.02832813 0.08222471 -0.04633394 0.07717123 0.17310666 0.027449744 0.037473857 -0.050839987 -0.17262568 -0.0607835 -0.034191277 0.31331775 -0.19337301 0.019112073 0.22737171 -0.037520867 -0.17307584 0.026877541 0.14701784 -0.01877238 -0.091632076 -0.00027052243 -0.033829805 -0.078981265 0.0070017013 0.0383321 -0.050741117 -0.0066998787 0.039903257 0.020892777 0.2765299 0.032710724 -0.06459928 0.072549455 0.0967465 0.13689245 0.111051545 0.20801349 -0.03523618 0.24138728 0.16517821 -0.13592051 -0.0521995 -0.16449882 0.010304472 0.09073372 -0.067359135 -0.0826728 -0.25292912 -0.06532154 -0.004614497 -0.13723016 0.06836303 0.18647832 -0.03405833 -0.02487445 -0.01582974 0.06872766 -0.17186281 0.19620433 -0.051278077 0.0632541 0.118389696 0.1313724 0.034744285 0.08960341 -0.027537588 -0.0052305474 0.16449313 0.1153346 0.023765609 -0.02503859 0.09779635 0.02946454 0.13764422 -0.07674957 -0.13463072 -0.0013977293 -0.12517975
23 0.032850422 -0.06532845 0.16796942 0.0122902645 0.024823088 -0.064209014 0.11681484 -0.013555383 0.02293221 -0.003127196 0.16591418 0.0059661684 0.004787769 -0.12395952 -0.030343924 -0.15933213 -0.037470248 0.117763266 -0.08713025 -0.040440407 0.10092708 0.047399692 0.10832555 -0.07883964 -0.111012496 0.05950605 -0.092353284 0.14073035 0.16148749 -0.037147578 -0.15270859 0.15611157 -0.09280253 -0.024741229 -0.10622106 -0.056627538 0.21657783 0.123043254 0.2834111 0.021145614 0.17224614 0.1593461 -0.034925282 -0.17036928 0.06152398 0.12429676 -0.0017788555 -0.22272317 0.03795045 0.05448192 0.08395348 -0.022741606 0.064085394 0.14203733 0.021776527 0.015967721 -0.02847172 -0.13624707 -0.058045737 -0.0052337255 0.2787097 -0.16822848 0.034702864 0.2085742 -0.0376676 -0.19170639 0.009632058 0.13464466 -0.021356026 -0.07533387 0.026454551 -0.0037616675 -0.08667443 -0.016644849 0.032158434 -0.08645305 -0.0030679083 0.018627657 -0.0008866063 0.25519946 0.037418455 -0.07402852 0.07210811 0.1041551 0.13330086 0.09646021 0.21589433 -0.055565752 0.21372454 0.18101737 -0.14176361 -0.052104823 -0.1324762 0.0145128155 0.06276692 -0.057549976 -0.077851914 -0.27386838 -0.05216244 -0.011924588 -0.12432004 0.072943866 0.15798467 -0.0059245415 -0.01575609 -0.0401768 0.049180977 -0.15554453 0.17574944 -0.017445832 0.05369409 0.09620092 0.09369154 0.05021369 0.032476343 -0.009222686 0.0063087535 0.16207966 0.11084611 0.03211044 -0.033091735 0.05827289 0.04151128 0.13627186 -0.05860716 -0.12669633 -0.03027793 -0.10219023
